digraph Tree {
node [shape=box, style="filled, rounded", color="black", fontname=helvetica] ;
edge [fontname=helvetica] ;
0 [label="PetalLengthCm <= 2.6\ngini = 0.665\nsamples = 120\nvalue = [39, 37, 44]\nclass = Iris-virginica", fillcolor="#f7f3fd"] ;
1 [label="gini = 0.0\nsamples = 39\nvalue = [39, 0, 0]\nclass = Iris-setosa", fillcolor="#e58139"] ;
0 -> 1 [labeldistance=2.5, labelangle=45, headlabel="True"] ;
2 [label="PetalWidthCm <= 1.65\ngini = 0.496\nsamples = 81\nvalue = [0, 37, 44]\nclass = Iris-virginica", fillcolor="#ebe0fb"] ;
0 -> 2 [labeldistance=2.5, labelangle=-45, headlabel="False"] ;
3 [label="PetalLengthCm <= 4.95\ngini = 0.18\nsamples = 40\nvalue = [0, 36, 4]\nclass = Iris-versicolor", fillcolor="#4fe88f"] ;
2 -> 3 ;
4 [label="gini = 0.0\nsamples = 35\nvalue = [0, 35, 0]\nclass = Iris-versicolor", fillcolor="#39e581"] ;
3 -> 4 ;
5 [label="PetalWidthCm <= 1.55\ngini = 0.32\nsamples = 5\nvalue = [0, 1, 4]\nclass = Iris-virginica", fillcolor="#a06aec"] ;
3 -> 5 ;
6 [label="gini = 0.0\nsamples = 3\nvalue = [0, 0, 3]\nclass = Iris-virginica", fillcolor="#8139e5"] ;
5 -> 6 ;
7 [label="PetalLengthCm <= 5.45\ngini = 0.5\nsamples = 2\nvalue = [0, 1, 1]\nclass = Iris-versicolor", fillcolor="#ffffff"] ;
5 -> 7 ;
8 [label="gini = 0.0\nsamples = 1\nvalue = [0, 1, 0]\nclass = Iris-versicolor", fillcolor="#39e581"] ;
7 -> 8 ;
9 [label="gini = 0.0\nsamples = 1\nvalue = [0, 0, 1]\nclass = Iris-virginica", fillcolor="#8139e5"] ;
7 -> 9 ;
10 [label="PetalLengthCm <= 4.85\ngini = 0.048\nsamples = 41\nvalue = [0, 1, 40]\nclass = Iris-virginica", fillcolor="#843ee6"] ;
2 -> 10 ;
11 [label="SepalWidthCm <= 3.1\ngini = 0.375\nsamples = 4\nvalue = [0, 1, 3]\nclass = Iris-virginica", fillcolor="#ab7bee"] ;
10 -> 11 ;
12 [label="gini = 0.0\nsamples = 3\nvalue = [0, 0, 3]\nclass = Iris-virginica", fillcolor="#8139e5"] ;
11 -> 12 ;
13 [label="gini = 0.0\nsamples = 1\nvalue = [0, 1, 0]\nclass = Iris-versicolor", fillcolor="#39e581"] ;
11 -> 13 ;
14 [label="gini = 0.0\nsamples = 37\nvalue = [0, 0, 37]\nclass = Iris-virginica", fillcolor="#8139e5"] ;
10 -> 14 ;
}